<?xml version="1.0"?>
<opencv_storage>
<cascade>
  <stageType>BOOST</stageType>
  <featureType>LBP</featureType>
  <height>27</height>
  <width>52</width>
  <stageParams>
    <boostType>GAB</boostType>
    <minHitRate>9.9500000476837158e-01</minHitRate>
    <maxFalseAlarm>5.0000000000000000e-01</maxFalseAlarm>
    <weightTrimRate>9.4999999999999996e-01</weightTrimRate>
    <maxDepth>1</maxDepth>
    <maxWeakCount>100</maxWeakCount></stageParams>
  <featureParams>
    <maxCatCount>256</maxCatCount>
    <featSize>1</featSize></featureParams>
  <stageNum>4</stageNum>
  <stages>
    <!-- stage 0 -->
    <_>
      <maxWeakCount>1</maxWeakCount>
      <stageThreshold>9.8165136575698853e-01</stageThreshold>
      <weakClassifiers>
        <_>
          <internalNodes>
            0 -1 2 -2097153 -4197899 -149422593 -2107043 -72613889
            -6311799 -74793985 -16129</internalNodes>
          <leafValues>
            -1. 9.8165136575698853e-01</leafValues></_></weakClassifiers></_>
    <!-- stage 1 -->
    <_>
      <maxWeakCount>1</maxWeakCount>
      <stageThreshold>9.4244605302810669e-01</stageThreshold>
      <weakClassifiers>
        <_>
          <internalNodes>
            0 -1 0 -17 -203960313 -1005858661 -1060372769 -248525601
            -750398325 -201327957 -1</internalNodes>
          <leafValues>
            -1. 9.4244605302810669e-01</leafValues></_></weakClassifiers></_>
    <!-- stage 2 -->
    <_>
      <maxWeakCount>1</maxWeakCount>
      <stageThreshold>9.3029493093490601e-01</stageThreshold>
      <weakClassifiers>
        <_>
          <internalNodes>
            0 -1 3 -539295745 -534529 -38797313 -2105381 -537919489 -513
            -68157441 -1025</internalNodes>
          <leafValues>
            -1. 9.3029493093490601e-01</leafValues></_></weakClassifiers></_>
    <!-- stage 3 -->
    <_>
      <maxWeakCount>1</maxWeakCount>
      <stageThreshold>8.8317352533340454e-01</stageThreshold>
      <weakClassifiers>
        <_>
          <internalNodes>
            0 -1 1 -1342705665 -262657 -545783809 -16385 -269762561
            -1050113 -262145 -1</internalNodes>
          <leafValues>
            -1. 8.8317352533340454e-01</leafValues></_></weakClassifiers></_></stages>
  <features>
    <_>
      <rect>
        10 5 1 6</rect></_>
    <_>
      <rect>
        15 22 9 1</rect></_>
    <_>
      <rect>
        16 11 4 2</rect></_>
    <_>
      <rect>
        17 13 7 2</rect></_></features></cascade>
</opencv_storage>